0.0224487 0.0251756 0.0216049 0.0202448 0.0293012 0.0312743 -0.00182621 0.0251313 -0.00642832
0.0224487 0.0278145 0.0238665 0.012913 0.0206452 0.0381641 0.00329369 0.0177028 -0.0174282
0.0224487 0.0190207 0.0247293 0.0231714 0.0253389 0.0270476 0.00538876 0.0329198 0.00505052
0.0224487 0.0217738 0.0283023 0.015312 0.0191638 0.0354308 0.0148198 0.024886 -0.00685953
0.0224487 0.0280807 0.0145524 0.022577 0.0364421 0.0234936 -0.0145092 0.0188725 -0.00800772
0.0224487 0.0318917 0.0165241 0.014802 0.0271262 0.0302892 -0.0114517 0.0140424 -0.0229185
0.0224487 0.0220696 0.0173254 0.0268772 0.0340975 0.0219853 -0.0100918 0.0267415 0.00677416
0.0224487 0.0267372 0.0209801 0.0187909 0.0288656 0.0322406 -0.00311205 0.0226176 -0.0103698
0.0224487 0.0278145 0.0238665 0.012913 0.0206452 0.0381641 0.00329369 0.0177028 -0.0174282
0.0224487 0.0293576 0.0251887 0.00365458 0.00616629 0.0425087 0.006521 0.00528666 -0.024366
0.0224487 0.0217738 0.0283023 0.015312 0.0191638 0.0354308 0.0148198 0.024886 -0.00685953
0.0224487 0.0235343 0.0305858 0.00443722 0.00600131 0.0413794 0.0215069 0.00779079 -0.0153114
0.0224487 0.0318917 0.0165241 0.014802 0.0271262 0.0302892 -0.0114517 0.0140424 -0.0229185
0.0224487 0.034279 0.0177585 0.00426574 0.00840034 0.0349806 -0.00934242 0.0043474 -0.0332175
0.0224487 0.0267372 0.0209801 0.0187909 0.0288656 0.0322406 -0.00311205 0.0226176 -0.0103698
0.0224487 0.030211 0.0236965 0.00569087 0.00987166 0.0411251 0.00292453 0.00772886 -0.0252355
0.0224487 0.0293576 0.0251887 0.00365458 0.00616629 0.0425087 0.006521 0.00528666 -0.024366
0.0224487 0.0291029 0.0249705 -0.00626428 -0.0104781 0.0417757 0.00597656 -0.00898361 -0.0231954
0.0224487 0.0235343 0.0305858 0.00443722 0.00600131 0.0413794 0.0215069 0.00779079 -0.0153114
0.0224487 0.023235 0.0301976 -0.00757491 -0.0101151 0.0403357 0.020334 -0.0131319 -0.0138285
0.0224487 0.034279 0.0177585 0.00426574 0.00840034 0.0349806 -0.00934242 0.0043474 -0.0332175
0.0224487 0.033876 0.0175502 -0.00728924 -0.0141863 0.0341651 -0.00970895 -0.00734215 -0.0314272
0.0224487 0.030211 0.0236965 0.00569087 0.00987166 0.0411251 0.00292453 0.00772886 -0.0252355
0.0224487 0.029587 0.0232087 -0.00963752 -0.0163746 0.039451 0.00178776 -0.0128221 -0.0224334
0.0224487 0.0190207 0.0247293 0.0231714 0.0253389 0.0270476 0.00538876 0.0329198 0.00505052
0.0224487 0.0217738 0.0283023 0.015312 0.0191638 0.0354308 0.0148198 0.024886 -0.00685953
0.0224487 0.0102035 0.0273629 0.0256381 0.0150414 0.016057 0.0122274 0.0403009 0.0159283
0.0224487 0.0121113 0.0324674 0.017564 0.0122288 0.0226128 0.0274284 0.0327412 0.00469904
0.0224487 0.0220696 0.0173254 0.0268772 0.0340975 0.0219853 -0.0100918 0.0267415 0.00677416
0.0224487 0.0267372 0.0209801 0.0187909 0.0288656 0.0322406 -0.00311205 0.0226176 -0.0103698
0.0224487 0.0123302 0.0199627 0.0309659 0.0219525 0.0141568 -0.00517655 0.0354948 0.0232138
0.0224487 0.0162413 0.0262695 0.0235234 0.0219545 0.0245319 0.00935733 0.0354302 0.00837664
0.0224487 0.0217738 0.0283023 0.015312 0.0191638 0.0354308 0.0148198 0.024886 -0.00685953
0.0224487 0.0235343 0.0305858 0.00443722 0.00600131 0.0413794 0.0215069 0.00779079 -0.0153114
0.0224487 0.0121113 0.0324674 0.0175639 0.0122288 0.0226128 0.0274284 0.0327412 0.00469904
0.0224487 0.0134546 0.0360579 0.00523046 0.00404474 0.0278954 0.0396612 0.010823 -0.00434276
0.0224487 0.0267373 0.0209801 0.0187909 0.0288656 0.0322406 -0.00311205 0.0226176 -0.0103698
0.0224487 0.030211 0.0236965 0.00569087 0.00987166 0.0411251 0.00292453 0.00772886 -0.0252355
0.0224487 0.0162413 0.0262695 0.0235234 0.0219545 0.0245319 0.00935733 0.0354302 0.00837664
0.0224487 0.0199982 0.0323086 0.00775576 0.00890342 0.0371247 0.0269241 0.0143356 -0.00962235
0.0224487 0.0235343 0.0305858 0.00443722 0.00600131 0.0413794 0.0215069 0.00779079 -0.0153114
0.0224487 0.023235 0.0301976 -0.00757492 -0.0101151 0.0403357 0.020334 -0.0131319 -0.0138285
0.0224487 0.0134546 0.0360579 0.00523046 0.00404474 0.0278954 0.0396612 0.010823 -0.00434276
0.0224487 0.0132183 0.0354263 -0.00888552 -0.00675078 0.0269261 0.0374175 -0.0180658 -0.00268403
0.0224487 0.030211 0.0236965 0.00569087 0.00987166 0.0411251 0.00292453 0.00772886 -0.0252355
0.0224487 0.029587 0.0232087 -0.00963753 -0.0163746 0.039451 0.00178776 -0.0128221 -0.0224334
0.0224487 0.0199982 0.0323086 0.00775576 0.00890342 0.0371247 0.0269241 0.0143356 -0.00962235
0.0224487 0.0192482 0.0311046 -0.0129114 -0.01427 0.0344073 0.0231401 -0.0229876 -0.00573924
0.0224487 0.0102035 0.0273629 0.0256381 0.0150414 0.016057 0.0122275 0.0403009 0.0159283
0.0224487 0.0121113 0.0324674 0.0175639 0.0122288 0.0226128 0.0274284 0.0327412 0.00469904
0.0224487 -0.000666172 0.0283539 0.0265661 -0.00101764 -0.0010864 0.0149803 0.0432717 0.0203063
0.0224487 -0.000803001 0.0341627 0.0184804 -0.000853181 -0.00157777 0.0330571 0.0362472 0.00985811
0.0224487 0.0123302 0.0199627 0.0309659 0.0219525 0.0141568 -0.00517655 0.0354948 0.0232138
0.0224487 0.0162413 0.0262695 0.0235234 0.0219545 0.0245319 0.00935733 0.0354302 0.00837664
0.0224487 -0.000819151 0.0210468 0.0326465 -0.00153777 -0.000991752 -0.00295323 0.0394533 0.0306472
0.0224487 -0.00112664 0.0289099 0.0258845 -0.00167646 -0.00187375 0.0166324 0.0429006 0.0193048
0.0224487 0.0121113 0.0324674 0.0175639 0.0122288 0.0226128 0.0274284 0.0327412 0.00469904
0.0224487 0.0134546 0.0360579 0.00523046 0.00404474 0.0278954 0.0396612 0.010823 -0.00434276
0.0224487 -0.000803001 0.0341627 0.0184804 -0.000853181 -0.00157777 0.0330571 0.0362472 0.00985811
0.0224487 -0.000903543 0.038426 0.00557365 -0.000289481 -0.00199671 0.0484448 0.0122895 0.000964089
0.0224487 0.0162413 0.0262695 0.0235234 0.0219545 0.0245319 0.00935733 0.0354302 0.00837664
0.0224487 0.0199982 0.0323086 0.00775576 0.00890342 0.0371247 0.0269241 0.0143356 -0.00962235
0.0224487 -0.00112664 0.0289099 0.0258845 -0.00167646 -0.00187375 0.0166324 0.0429006 0.0193048
0.0224487 -0.00147088 0.0376708 0.00903971 -0.000763661 -0.00318674 0.0456039 0.0194687 0.00252629
0.0224487 0.0134546 0.0360579 0.00523046 0.00404474 0.0278954 0.0396612 0.010823 -0.00434276
0.0224487 0.0132183 0.0354263 -0.00888552 -0.00675078 0.0269261 0.0374175 -0.0180658 -0.00268403
0.0224487 -0.000903544 0.038426 0.00557365 -0.000289481 -0.00199671 0.0484448 0.0122895 0.000964089
0.0224487 -0.000885566 0.0376641 -0.00944627 0.000480873 -0.00191822 0.0455634 -0.0204176 0.00262954
0.0224487 0.0199982 0.0323086 0.00775576 0.00890343 0.0371247 0.0269242 0.0143356 -0.00962235
0.0224487 0.0192482 0.0311046 -0.0129114 -0.01427 0.0344073 0.0231401 -0.0229876 -0.00573923
0.0224487 -0.00147089 0.0376708 0.00903971 -0.000763661 -0.00318673 0.0456039 0.0194687 0.00252629
0.0224487 -0.00139707 0.0357966 -0.0148547 0.00119227 -0.00287655 0.038779 -0.0304222 0.00647895
0.0224487 0.0280807 0.0145524 0.022577 0.0364421 0.0234936 -0.0145092 0.0188725 -0.00800772
0.0224487 0.0318917 0.0165241 0.014802 0.0271262 0.0302892 -0.0114517 0.0140424 -0.0229186
0.0224487 0.0220696 0.0173254 0.0268772 0.0340975 0.0219853 -0.0100918 0.0267415 0.00677416
0.0224487 0.0267372 0.0209801 0.0187909 0.0288656 0.0322406 -0.00311205 0.0226176 -0.0103698
0.0224487 0.0299941 0.00535099 0.0241125 0.0415678 0.00922652 -0.0236141 0.0074099 -0.00914447
0.0224487 0.0347794 0.006203 0.0161388 0.0322451 0.0123969 -0.0231052 0.00574493 -0.0272614
0.0224487 0.0243013 0.00656663 0.0295873 0.0413253 0.00917452 -0.0228639 0.0111535 0.00818805
0.0224487 0.0310136 0.00837414 0.0217828 0.0387896 0.0149196 -0.0214699 0.0104536 -0.0139863
0.0224487 0.0318917 0.0165241 0.014802 0.0271262 0.0302892 -0.0114517 0.0140424 -0.0229186
0.0224487 0.034279 0.0177585 0.00426574 0.00840033 0.0349806 -0.00934242 0.0043474 -0.0332175
0.0224487 0.0267372 0.0209801 0.0187909 0.0288656 0.0322406 -0.00311205 0.0226176 -0.0103698
0.0224487 0.030211 0.0236964 0.00569087 0.00987166 0.041125 0.00292453 0.00772887 -0.0252355
0.0224487 0.0347794 0.006203 0.0161388 0.0322451 0.0123969 -0.0231052 0.00574493 -0.0272614
0.0224487 0.0379409 0.0067655 0.00472006 0.0102832 0.0147443 -0.0227288 0.00183137 -0.0406875
0.0224487 0.0310136 0.00837414 0.0217828 0.0387896 0.0149196 -0.0214699 0.0104536 -0.0139863
0.0224487 0.036826 0.00993571 0.00692918 0.0146287 0.0209909 -0.020001 0.00393619 -0.0374862
0.0224487 0.034279 0.0177585 0.00426574 0.00840033 0.0349806 -0.00934242 0.0043474 -0.0332175
0.0224487 0.033876 0.0175502 -0.00728923 -0.0141863 0.0341651 -0.00970895 -0.00734214 -0.0314272
0.0224487 0.030211 0.0236964 0.00569087 0.00987166 0.041125 0.00292453 0.00772887 -0.0252355
0.0224487 0.0295871 0.0232087 -0.00963752 -0.0163745 0.039451 0.00178777 -0.0128221 -0.0224334
0.0224487 0.0379409 0.00676549 0.00472006 0.0102832 0.0147443 -0.0227288 0.00183137 -0.0406875
0.0224487 0.0373973 0.00666881 -0.0080447 -0.0172767 0.0143264 -0.0227958 -0.00307708 -0.0382967
0.0224487 0.036826 0.00993571 0.00692918 0.0146287 0.0209909 -0.020001 0.00393619 -0.0374862
0.0224487 0.035717 0.00963806 -0.0116225 -0.0238069 0.0197551 -0.0202996 -0.00640783 -0.0326976
0.0224487 0.0220696 0.0173254 0.0268772 0.0340975 0.0219853 -0.0100918 0.0267415 0.00677416
0.0224487 0.0267372 0.0209801 0.0187909 0.0288656 0.0322406 -0.00311205 0.0226176 -0.0103698
0.0224487 0.0123302 0.0199627 0.0309659 0.0219525 0.0141568 -0.00517655 0.0354948 0.0232138
0.0224487 0.0162413 0.0262695 0.0235234 0.0219545 0.0245319 0.00935733 0.0354302 0.00837664
0.0224487 0.0243013 0.00656663 0.0295873 0.0413253 0.00917452 -0.0228639 0.0111535 0.00818805
0.0224487 0.0310136 0.00837414 0.0217828 0.0387896 0.0149196 -0.0214699 0.0104536 -0.0139863
0.0224487 0.0140794 0.00784462 0.0353411 0.028607 0.00635252 -0.0219097 0.0159118 0.0302093
0.0224487 0.0210342 0.0116949 0.0304068 0.0367267 0.0141385 -0.0180302 0.0203423 0.0138625
0.0224487 0.0267372 0.0209801 0.0187909 0.0288656 0.0322406 -0.00311205 0.0226176 -0.0103698
0.0224487 0.030211 0.0236964 0.00569087 0.00987166 0.041125 0.00292453 0.00772887 -0.0252355
0.0224487 0.0162413 0.0262694 0.0235234 0.0219545 0.0245319 0.00935732 0.0354302 0.00837664
0.0224487 0.0199982 0.0323086 0.00775576 0.00890342 0.0371247 0.0269242 0.0143356 -0.00962235
0.0224487 0.0310136 0.00837414 0.0217828 0.0387896 0.0149196 -0.0214699 0.0104536 -0.0139863
0.0224487 0.036826 0.00993572 0.00692918 0.0146287 0.0209909 -0.020001 0.00393619 -0.0374863
0.0224487 0.0210342 0.0116949 0.0304068 0.0367267 0.0141385 -0.0180302 0.0203423 0.0138625
0.0224487 0.0319676 0.0176863 0.0123151 0.0224563 0.0323254 -0.00908803 0.0123197 -0.0247175
0.0224487 0.030211 0.0236964 0.00569087 0.00987166 0.041125 0.00292453 0.00772887 -0.0252355
0.0224487 0.029587 0.0232087 -0.00963752 -0.0163746 0.039451 0.00178776 -0.0128221 -0.0224334
0.0224487 0.0199982 0.0323086 0.00775576 0.00890342 0.0371247 0.0269242 0.0143356 -0.00962235
0.0224487 0.0192482 0.0311046 -0.0129114 -0.01427 0.0344073 0.0231401 -0.0229876 -0.00573923
0.0224487 0.036826 0.00993572 0.00692918 0.0146287 0.0209909 -0.020001 0.00393619 -0.0374863
0.0224487 0.035717 0.00963806 -0.0116225 -0.0238069 0.0197551 -0.0202996 -0.00640783 -0.0326976
0.0224487 0.0319676 0.0176863 0.0123151 0.0224563 0.0323254 -0.00908803 0.0123197 -0.0247175
0.0224487 0.029183 0.0161687 -0.0194746 -0.0325003 0.0270333 -0.0116734 -0.0178785 -0.0134351
0.0224487 0.0123302 0.0199627 0.0309659 0.0219525 0.0141568 -0.00517655 0.0354948 0.0232138
0.0224487 0.0162413 0.0262694 0.0235234 0.0219545 0.0245319 0.00935733 0.0354302 0.00837664
0.0224487 -0.00081915 0.0210468 0.0326464 -0.00153777 -0.000991752 -0.00295323 0.0394533 0.0306471
0.0224487 -0.00112664 0.0289099 0.0258845 -0.00167646 -0.00187375 0.0166324 0.0429006 0.0193048
0.0224487 0.0140794 0.00784462 0.0353411 0.028607 0.00635252 -0.0219097 0.0159118 0.0302093
0.0224487 0.0210342 0.0116949 0.0304068 0.0367267 0.0141385 -0.0180302 0.0203423 0.0138625
0.0224487 -0.000951794 0.00841505 0.0379086 -0.00207495 -0.000460825 -0.0214288 0.0183091 0.0413004
0.0224487 -0.00157899 0.0139115 0.0361572 -0.00328273 -0.00126456 -0.0150962 0.0287645 0.0375522
0.0224487 0.0162413 0.0262695 0.0235234 0.0219545 0.0245319 0.00935733 0.0354302 0.00837664
0.0224487 0.0199982 0.0323086 0.00775576 0.00890342 0.0371247 0.0269242 0.0143356 -0.00962235
0.0224487 -0.00112664 0.0289099 0.0258845 -0.00167646 -0.00187374 0.0166324 0.0429006 0.0193048
0.0224487 -0.00147089 0.0376708 0.00903972 -0.00076366 -0.00318674 0.0456039 0.0194687 0.00252629
0.0224487 0.0210342 0.0116949 0.0304069 0.0367267 0.0141385 -0.0180302 0.0203423 0.0138625
0.0224487 0.0319676 0.0176863 0.0123151 0.0224563 0.0323254 -0.00908803 0.0123197 -0.0247174
0.0224487 -0.00157899 0.0139115 0.0361573 -0.00328273 -0.00126456 -0.0150962 0.0287645 0.0375522
0.0224487 -0.00363793 0.0313039 0.0216711 -0.00450327 -0.00656776 0.0245032 0.0377313 0.0140466
0.0224487 0.0199982 0.0323086 0.00775576 0.00890342 0.0371247 0.0269242 0.0143356 -0.00962235
0.0224487 0.0192482 0.0311046 -0.0129114 -0.01427 0.0344073 0.0231401 -0.0229876 -0.00573924
0.0224487 -0.00147089 0.0376708 0.00903972 -0.00076366 -0.00318674 0.0456039 0.0194687 0.00252629
0.0224487 -0.00139707 0.0357966 -0.0148547 0.00119227 -0.00287654 0.038779 -0.0304222 0.00647895
0.0224487 0.0319676 0.0176863 0.0123151 0.0224563 0.0323254 -0.00908803 0.0123197 -0.0247174
0.0224487 0.029183 0.0161687 -0.0194746 -0.0325003 0.0270332 -0.0116734 -0.0178785 -0.0134351
0.0224487 -0.00363793 0.0313039 0.0216711 -0.00450327 -0.00656776 0.0245032 0.0377313 0.0140466
0.0224487 -0.00282337 0.0245725 -0.0295286 0.00478645 -0.00399903 0.00578589 -0.0409477 0.0251721
0.0224487 0.0299941 0.00535099 0.0241125 0.0415678 0.00922653 -0.0236141 0.0074099 -0.00914447
0.0224487 0.0347794 0.006203 0.0161388 0.0322451 0.0123969 -0.0231052 0.00574493 -0.0272614
0.0224487 0.0243013 0.00656663 0.0295873 0.0413253 0.00917452 -0.0228639 0.0111535 0.00818805
0.0224487 0.0310137 0.00837414 0.0217828 0.0387896 0.0149196 -0.0214699 0.0104536 -0.0139863
0.0224487 0.0300459 -0.00484882 0.024154 0.0417112 -0.00837505 -0.0238687 -0.00672603 -0.00917628
0.0224487 0.0348601 -0.0056242 0.0161762 0.0323944 -0.0112661 -0.0234452 -0.00522084 -0.0273881
0.0224487 0.0243646 -0.00595558 0.0296642 0.0415403 -0.00834245 -0.0232439 -0.0101418 0.00823
0.0224487 0.0311453 -0.00760721 0.0218747 0.0391179 -0.0136105 -0.0220773 -0.00953593 -0.0141064
0.0224487 0.0347794 0.006203 0.0161388 0.0322451 0.0123969 -0.0231052 0.00574493 -0.0272614
0.0224487 0.0379409 0.0067655 0.00472006 0.0102832 0.0147443 -0.0227288 0.00183137 -0.0406875
0.0224487 0.0310137 0.00837414 0.0217828 0.0387896 0.0149196 -0.0214699 0.0104536 -0.0139863
0.0224487 0.036826 0.00993572 0.00692918 0.0146287 0.0209909 -0.020001 0.0039362 -0.0374862
0.0224487 0.0348601 -0.0056242 0.0161762 0.0323944 -0.0112661 -0.0234452 -0.00522084 -0.0273881
0.0224487 0.0380456 -0.00613688 0.00473304 0.0103398 -0.0134111 -0.0231312 -0.00166574 -0.0409121
0.0224487 0.0311453 -0.00760721 0.0218747 0.0391179 -0.0136105 -0.0220773 -0.00953593 -0.0141064
0.0224487 0.0370461 -0.00904119 0.00697029 0.0148024 -0.019214 -0.02084 -0.00360271 -0.0379347
0.0224487 0.0379409 0.0067655 0.00472006 0.0102832 0.0147443 -0.0227288 0.00183137 -0.0406875
0.0224487 0.0373973 0.00666881 -0.0080447 -0.0172767 0.0143264 -0.0227957 -0.00307708 -0.0382966
0.0224487 0.036826 0.00993572 0.00692918 0.0146287 0.0209909 -0.020001 0.00393619 -0.0374862
0.0224487 0.035717 0.00963806 -0.0116225 -0.0238069 0.0197551 -0.0202996 -0.00640783 -0.0326976
0.0224487 0.0380456 -0.00613688 0.00473304 0.0103398 -0.0134111 -0.0231312 -0.00166574 -0.0409121
0.0224487 0.0374976 -0.0060487 -0.0080662 -0.0173691 -0.013029 -0.0231871 0.00279836 -0.0385021
0.0224487 0.0370461 -0.00904119 0.00697029 0.0148024 -0.0192141 -0.02084 -0.00360271 -0.0379347
0.0224487 0.0359178 -0.0087673 -0.0116875 -0.0240732 -0.0180705 -0.0210922 0.00586098 -0.0330662
0.0224487 0.0243013 0.00656663 0.0295873 0.0413253 0.00917452 -0.0228639 0.0111535 0.00818805
0.0224487 0.0310136 0.00837414 0.0217827 0.0387896 0.0149196 -0.0214699 0.0104536 -0.0139863
0.0224487 0.0140794 0.00784461 0.0353411 0.0286069 0.00635252 -0.0219097 0.0159118 0.0302093
0.0224487 0.0210342 0.0116949 0.0304069 0.0367267 0.0141385 -0.0180302 0.0203423 0.0138625
0.0224487 0.0243646 -0.00595558 0.0296642 0.0415403 -0.00834245 -0.0232439 -0.0101418 0.00823
0.0224487 0.0311453 -0.00760722 0.0218748 0.0391179 -0.0136105 -0.0220773 -0.00953593 -0.0141064
0.0224487 0.0141319 -0.0071226 0.0354724 0.0288204 -0.00578938 -0.0224462 -0.0145007 0.0304334
0.0224487 0.0212103 -0.010667 0.030659 0.0373399 -0.0130035 -0.0191656 -0.0187064 0.0140876
0.0224487 0.036826 0.00993572 0.00692918 0.0146287 0.0209909 -0.020001 0.00393619 -0.0374862
0.0224487 0.035717 0.00963806 -0.0116225 -0.0238069 0.0197551 -0.0202996 -0.00640783 -0.0326976
0.0224487 0.0319676 0.0176863 0.0123151 0.0224563 0.0323254 -0.00908803 0.0123197 -0.0247174
0.0224487 0.029183 0.0161687 -0.0194746 -0.0325003 0.0270332 -0.0116734 -0.0178785 -0.0134351
0.0224487 0.0370461 -0.00904119 0.00697029 0.0148024 -0.0192141 -0.02084 -0.00360271 -0.0379347
0.0224487 0.0359178 -0.0087673 -0.0116875 -0.0240732 -0.0180705 -0.0210922 0.00586098 -0.0330662
0.0224487 0.0325856 -0.0163027 0.0125479 0.0233105 -0.0303582 -0.0113813 -0.0115607 -0.0256868
0.0224487 0.029654 -0.0148586 -0.0197831 -0.0335379 -0.0252372 -0.013663 0.0166812 -0.0138851
0.0224487 0.0140794 0.00784461 0.0353411 0.0286069 0.00635252 -0.0219097 0.0159118 0.0302093
0.0224487 0.0210342 0.0116949 0.0304069 0.0367267 0.0141385 -0.0180302 0.0203423 0.0138625
0.0224487 -0.000951794 0.00841505 0.0379087 -0.00207495 -0.000460824 -0.0214288 0.0183091 0.0413004
0.0224487 -0.00157899 0.0139115 0.0361573 -0.00328273 -0.00126456 -0.0150962 0.0287645 0.0375522
0.0224487 0.0141319 -0.0071226 0.0354724 0.0288204 -0.00578938 -0.0224462 -0.0145007 0.0304334
0.0224487 0.0212103 -0.010667 0.030659 0.0373399 -0.0130035 -0.0191656 -0.0187064 0.0140876
0.0224487 -0.000955892 -0.00764487 0.0380711 -0.00209283 0.000420453 -0.0220427 -0.0167043 0.0416544
0.0224487 -0.00159795 -0.0127336 0.0365855 -0.00336157 0.00117144 -0.0166431 -0.0266378 0.0384418
0.0224487 0.0210342 0.0116949 0.0304069 0.0367267 0.0141385 -0.0180302 0.0203423 0.0138625
0.0224487 0.0319676 0.0176863 0.0123151 0.0224563 0.0323254 -0.00908803 0.0123197 -0.0247175
0.0224487 -0.00157899 0.0139115 0.0361572 -0.00328273 -0.00126456 -0.0150962 0.0287645 0.0375522
0.0224487 -0.00363793 0.0313039 0.0216711 -0.00450327 -0.00656776 0.0245032 0.0377313 0.0140466
0.0224487 0.0212103 -0.010667 0.030659 0.0373399 -0.0130035 -0.0191656 -0.0187064 0.0140876
0.0224487 0.0325856 -0.0163027 0.0125479 0.0233105 -0.0303582 -0.0113813 -0.0115607 -0.0256868
0.0224487 -0.00159795 -0.0127336 0.0365855 -0.00336157 0.00117144 -0.0166431 -0.0266378 0.0384418
0.0224487 -0.00389226 -0.0301627 0.0230616 -0.00512595 0.00677579 0.0212216 -0.0385278 0.0158218
0.0224487 0.0319676 0.0176863 0.0123151 0.0224563 0.0323254 -0.00908803 0.0123197 -0.0247175
0.0224487 0.029183 0.0161687 -0.0194746 -0.0325003 0.0270332 -0.0116734 -0.0178785 -0.0134351
0.0224487 -0.00363793 0.0313039 0.0216711 -0.00450327 -0.00656776 0.0245032 0.0377313 0.0140466
0.0224487 -0.00282336 0.0245725 -0.0295286 0.00478645 -0.00399903 0.00578589 -0.0409477 0.0251721
0.0224487 0.0325856 -0.0163027 0.0125479 0.0233105 -0.0303582 -0.0113813 -0.0115607 -0.0256868
0.0224487 0.029654 -0.0148587 -0.0197831 -0.0335378 -0.0252372 -0.013663 0.0166812 -0.0138852
0.0224487 -0.00389226 -0.0301627 0.0230616 -0.00512595 0.00677579 0.0212216 -0.0385278 0.0158218
0.0224487 -0.00293687 -0.0230861 -0.0306622 0.00517078 0.00390882 0.00238054 0.0398922 0.0270987
